<?xml version="1.0" encoding="UTF-8"?>
<BIF VERSION="0.3"  xmlns="http://www.cs.ubc.ca/labs/lci/fopi/ve/XMLBIFv0_3"
	xmlns:xsi="http://www.w3.org/2001/XMLSchema-instance"
	xsi:schemaLocation="http://www.cs.ubc.ca/labs/lci/fopi/ve/XMLBIFv0_3 http://www.cs.ubc.ca/labs/lci/fopi/ve/XMLBIFv0_3/XMLBIFv0_3.xsd">
<NETWORK>
<NAME>Untitled</NAME>
<PROPERTY>short = </PROPERTY>
<PROPERTY>detailed = </PROPERTY>

<VARIABLE TYPE="nature">
	<NAME>Pit3_3</NAME>
	<OUTCOME>T</OUTCOME>
	<OUTCOME>F</OUTCOME>
	<PROPERTY>position = (7653.94677734375, 5066.47119140625)</PROPERTY>
</VARIABLE>

<VARIABLE TYPE="nature">
	<NAME>B1_2</NAME>
	<OUTCOME>T</OUTCOME>
	<OUTCOME>F</OUTCOME>
	<PROPERTY>position = (7502.0, 5331.0)</PROPERTY>
</VARIABLE>

<VARIABLE TYPE="nature">
	<NAME>B3_2</NAME>
	<OUTCOME>T</OUTCOME>
	<OUTCOME>F</OUTCOME>
	<PROPERTY>position = (7487.0, 5066.0)</PROPERTY>
</VARIABLE>

<VARIABLE TYPE="nature">
	<NAME>Exit</NAME>
	<OUTCOME>T</OUTCOME>
	<OUTCOME>F</OUTCOME>
	<PROPERTY>position = (7490.91796875, 5021.9931640625)</PROPERTY>
</VARIABLE>

<VARIABLE TYPE="nature">
	<NAME>Pit1_2</NAME>
	<OUTCOME>T</OUTCOME>
	<OUTCOME>F</OUTCOME>
	<PROPERTY>position = (7501.798828125, 5385.47509765625)</PROPERTY>
</VARIABLE>

<VARIABLE TYPE="nature">
	<NAME>Pit2_1</NAME>
	<OUTCOME>T</OUTCOME>
	<OUTCOME>F</OUTCOME>
	<PROPERTY>position = (7206.61083984375, 5191.25146484375)</PROPERTY>
</VARIABLE>

<VARIABLE TYPE="nature">
	<NAME>B3_1</NAME>
	<OUTCOME>T</OUTCOME>
	<OUTCOME>F</OUTCOME>
	<PROPERTY>position = (7202.0, 5025.0)</PROPERTY>
</VARIABLE>

<VARIABLE TYPE="nature">
	<NAME>Pit3_1</NAME>
	<OUTCOME>T</OUTCOME>
	<OUTCOME>F</OUTCOME>
	<PROPERTY>position = (7271.69140625, 5068.47119140625)</PROPERTY>
</VARIABLE>

<VARIABLE TYPE="nature">
	<NAME>B1_1</NAME>
	<OUTCOME>T</OUTCOME>
	<OUTCOME>F</OUTCOME>
	<PROPERTY>position = (7209.97607421875, 5382.95166015625)</PROPERTY>
</VARIABLE>

<VARIABLE TYPE="nature">
	<NAME>Owner</NAME>
	<OUTCOME>T</OUTCOME>
	<OUTCOME>F</OUTCOME>
	<PROPERTY>position = (7273.8427734375, 5330.47509765625)</PROPERTY>
</VARIABLE>

<VARIABLE TYPE="nature">
	<NAME>Pit1_3</NAME>
	<OUTCOME>T</OUTCOME>
	<OUTCOME>F</OUTCOME>
	<PROPERTY>position = (7668.86669921875, 5327.95166015625)</PROPERTY>
</VARIABLE>

<VARIABLE TYPE="nature">
	<NAME>B2_3</NAME>
	<OUTCOME>T</OUTCOME>
	<OUTCOME>F</OUTCOME>
	<PROPERTY>position = (7667.0, 5174.0)</PROPERTY>
</VARIABLE>

<VARIABLE TYPE="nature">
	<NAME>Pit2_3</NAME>
	<OUTCOME>T</OUTCOME>
	<OUTCOME>F</OUTCOME>
	<PROPERTY>position = (7763.9072265625, 5190.25146484375)</PROPERTY>
</VARIABLE>

<VARIABLE TYPE="nature">
	<NAME>B2_1</NAME>
	<OUTCOME>T</OUTCOME>
	<OUTCOME>F</OUTCOME>
	<PROPERTY>position = (7273.0, 5170.0)</PROPERTY>
</VARIABLE>

<VARIABLE TYPE="nature">
	<NAME>Pit2_2</NAME>
	<OUTCOME>T</OUTCOME>
	<OUTCOME>F</OUTCOME>
	<PROPERTY>position = (7448.8798828125, 5165.7724609375)</PROPERTY>
</VARIABLE>

<VARIABLE TYPE="nature">
	<NAME>B2_2</NAME>
	<OUTCOME>T</OUTCOME>
	<OUTCOME>F</OUTCOME>
	<PROPERTY>position = (7494.0, 5205.0)</PROPERTY>
</VARIABLE>

<VARIABLE TYPE="nature">
	<NAME>B3_3</NAME>
	<OUTCOME>T</OUTCOME>
	<OUTCOME>F</OUTCOME>
	<PROPERTY>position = (7758.0, 5022.0)</PROPERTY>
</VARIABLE>

<VARIABLE TYPE="nature">
	<NAME>B1_3</NAME>
	<OUTCOME>T</OUTCOME>
	<OUTCOME>F</OUTCOME>
	<PROPERTY>position = (7764.0, 5382.0)</PROPERTY>
</VARIABLE>

<DEFINITION>
	<FOR>Pit3_3</FOR>
	<TABLE>0.2 0.8</TABLE>
</DEFINITION>

<DEFINITION>
	<FOR>B1_2</FOR>
	<GIVEN>Pit1_3</GIVEN>
	<GIVEN>Pit2_2</GIVEN>
	<TABLE>1.0 0.0 1.0 0.0 1.0 0.0 0.0 1.0</TABLE>
</DEFINITION>

<DEFINITION>
	<FOR>B3_2</FOR>
	<GIVEN>Pit3_3</GIVEN>
	<GIVEN>Pit3_1</GIVEN>
	<GIVEN>Pit2_2</GIVEN>
	<TABLE>1.0 0.0 1.0 0.0 1.0 0.0 1.0 0.0 1.0 0.0 1.0 0.0 1.0 0.0 0.0 1.0</TABLE>
</DEFINITION>

<DEFINITION>
	<FOR>Exit</FOR>
	<TABLE>1.0 0.0</TABLE>
</DEFINITION>

<DEFINITION>
	<FOR>Pit1_2</FOR>
	<TABLE>0.2 0.8</TABLE>
</DEFINITION>

<DEFINITION>
	<FOR>Pit2_1</FOR>
	<TABLE>0.2 0.8</TABLE>
</DEFINITION>

<DEFINITION>
	<FOR>B3_1</FOR>
	<GIVEN>Pit2_1</GIVEN>
	<TABLE>1.0 0.0 0.0 1.0</TABLE>
</DEFINITION>

<DEFINITION>
	<FOR>Pit3_1</FOR>
	<TABLE>0.2 0.8</TABLE>
</DEFINITION>

<DEFINITION>
	<FOR>B1_1</FOR>
	<GIVEN>Pit1_2</GIVEN>
	<GIVEN>Pit2_1</GIVEN>
	<TABLE>1.0 0.0 1.0 0.0 1.0 0.0 0.0 1.0</TABLE>
</DEFINITION>

<DEFINITION>
	<FOR>Owner</FOR>
	<TABLE>1.0 0.0</TABLE>
</DEFINITION>

<DEFINITION>
	<FOR>Pit1_3</FOR>
	<TABLE>0.2 0.8</TABLE>
</DEFINITION>

<DEFINITION>
	<FOR>B2_3</FOR>
	<GIVEN>Pit3_3</GIVEN>
	<GIVEN>Pit1_3</GIVEN>
	<GIVEN>Pit2_2</GIVEN>
	<TABLE>1.0 0.0 1.0 0.0 1.0 0.0 1.0 0.0 1.0 0.0 1.0 0.0 1.0 0.0 0.0 1.0</TABLE>
</DEFINITION>

<DEFINITION>
	<FOR>Pit2_3</FOR>
	<TABLE>0.2 0.8</TABLE>
</DEFINITION>

<DEFINITION>
	<FOR>B2_1</FOR>
	<GIVEN>Pit3_1</GIVEN>
	<GIVEN>Pit2_2</GIVEN>
	<TABLE>1.0 0.0 1.0 0.0 1.0 0.0 0.0 1.0</TABLE>
</DEFINITION>

<DEFINITION>
	<FOR>Pit2_2</FOR>
	<TABLE>0.2 0.8</TABLE>
</DEFINITION>

<DEFINITION>
	<FOR>B2_2</FOR>
	<GIVEN>Pit1_2</GIVEN>
	<GIVEN>Pit2_1</GIVEN>
	<GIVEN>Pit2_3</GIVEN>
	<TABLE>1.0 0.0 1.0 0.0 1.0 0.0 1.0 0.0 1.0 0.0 1.0 0.0 1.0 0.0 0.0 1.0</TABLE>
</DEFINITION>

<DEFINITION>
	<FOR>B3_3</FOR>
	<GIVEN>Pit2_3</GIVEN>
	<TABLE>1.0 0.0 0.0 1.0</TABLE>
</DEFINITION>

<DEFINITION>
	<FOR>B1_3</FOR>
	<GIVEN>Pit1_2</GIVEN>
	<GIVEN>Pit2_3</GIVEN>
	<TABLE>1.0 0.0 1.0 0.0 1.0 0.0 0.0 1.0</TABLE>
</DEFINITION>
</NETWORK>
</BIF>
